{
    "model": "Hello world",
    "id": 0,
    "score": 88.28161288182079,
    "configurations": {
        "Method": 0,
        "NumberOfFeatures": 16,
        "NumberOfLayers": 4,
        "NumberOfEpochs": 1000000,
        "LearningRate": 0.004,
        "Layers": {
            "layer@1": {
                "Name": "Layer 1",
                "NumberOfNodes": 8,
                "Weight": [
                    [
                        -1.9073759202043385,
                        -4.859018037526717,
                        -1.0712842656459365,
                        0.00042556679886402376,
                        -0.6987698692239592,
                        -0.6248914066276618,
                        -0.7900934753015115,
                        5.24878341369145
                    ],
                    [
                        0.037486305701285694,
                        0.5843754414793004,
                        0.22474626966273212,
                        0.008165903072541279,
                        -0.3436034093988331,
                        -0.04158250414097552,
                        -0.3019688658272955,
                        -0.12077888987888014
                    ],
                    [
                        0.09222534768921774,
                        1.1361101368681694,
                        -0.6892327342307092,
                        0.05788517933507314,
                        -0.1621569804561165,
                        -0.11301541887631628,
                        0.10808137810266409,
                        -0.38100128728713906
                    ],
                    [
                        -1.2661738899095112,
                        -0.3523187046021546,
                        0.8521310068038277,
                        -0.06637766288029859,
                        0.37197935798733317,
                        -0.09107156123606039,
                        -0.7802047029636672,
                        -0.1239922376049172
                    ],
                    [
                        -3.4486553949466217,
                        -0.8162083294527068,
                        10.49127015445644,
                        -0.8666521969751426,
                        2.5403300633139434,
                        0.1823329972666925,
                        5.429769138576401,
                        -0.2832831991701219
                    ],
                    [
                        -5.931401576906256,
                        1.7079526409279646,
                        -2.6373608523780017,
                        -1.0329577233990428,
                        3.823643019263373,
                        1.3519067441687351,
                        -1.012767075652459,
                        -1.7020668463553925
                    ],
                    [
                        1.273480175402777,
                        0.495682136326415,
                        2.9754734763173714,
                        -0.08490582425179531,
                        11.955097522803111,
                        0.038422169737896965,
                        -5.907762912106753,
                        0.5410716219821775
                    ],
                    [
                        -0.07497278160518578,
                        0.30268081184677903,
                        0.6238997633833167,
                        -0.010356265964757328,
                        0.24150587270006524,
                        -0.3017338746509767,
                        0.46503745599819307,
                        0.6956522971832901
                    ],
                    [
                        -2.080850818274564,
                        0.5277181055388654,
                        13.092064544329572,
                        0.8483056506996888,
                        7.091238163077562,
                        -0.5382855903089128,
                        2.1912124131685067,
                        0.40129120366203574
                    ],
                    [
                        -3.6752326184936543,
                        1.2205780210152128,
                        4.443492841623364,
                        1.0644275192129102,
                        1.4734777795336103,
                        -2.7844013974864987,
                        1.97640210950497,
                        1.3377763385284411
                    ],
                    [
                        -1.0915672738817872,
                        -3.198837172101299,
                        -13.006996493221672,
                        -6.30327493048897,
                        -34.79306403359644,
                        -7.301678248426003,
                        -17.860448013658928,
                        -1.9206492870260183
                    ],
                    [
                        -5.57264712413496,
                        -10.075670342504093,
                        -11.868321495073664,
                        21.3504296061313,
                        -7.863982420020977,
                        -10.376535090556645,
                        -5.786875131261921,
                        -21.900011809917018
                    ],
                    [
                        3.9451859712436534,
                        5.55415649800275,
                        7.6770834247486786,
                        -4.088712369960118,
                        -5.597222657338126,
                        3.3413704179551695,
                        -2.3694885702977317,
                        -3.0096505865397414
                    ],
                    [
                        -7.362043254182348,
                        -3.8714554896243807,
                        6.896324945562693,
                        0.4641139267926241,
                        2.621462597688477,
                        -4.380912285110143,
                        -2.1329221144645905,
                        9.651953443745295
                    ],
                    [
                        -2.090357382772142,
                        -0.3745261917544391,
                        0.7414532068723206,
                        -2.8139936350090173,
                        -0.9425276341913582,
                        -1.4961598715841384,
                        -2.635443518164749,
                        -4.571208646621092
                    ],
                    [
                        -6.01494005332712,
                        14.971885154246664,
                        -9.092453696606404,
                        -0.5023834017163687,
                        2.8644792749377324,
                        -1.2276677044541875,
                        1.5851679208098526,
                        3.345346047441185
                    ]
                ],
                "Bias": [
                    [
                        8.61762477442238,
                        -10.600746642282987,
                        7.2698054315926575,
                        2.2714060305321633,
                        0.6872247631123602,
                        7.742537549515307,
                        7.948979203276225,
                        -0.5355129206448512
                    ]
                ]
            },
            "layer@2": {
                "Name": "Layer 2",
                "NumberOfNodes": 8,
                "Weight": [
                    [
                        5.392951202666385,
                        -5.247199921257813,
                        -2.3624758370824503,
                        -8.222254922609304,
                        -2.991673022402031,
                        -2.6125738866546526,
                        4.015648409559687,
                        -0.9831467971475127
                    ],
                    [
                        -8.114356457382454,
                        -6.202922194810277,
                        1.0757051708767678,
                        0.08389805729917477,
                        -3.7833251301065056,
                        -0.0355704225581069,
                        -14.697974013251441,
                        -1.9771740016824482
                    ],
                    [
                        -2.963422386481426,
                        -3.1875884736560023,
                        3.017063590739148,
                        8.548571749242814,
                        -0.4053581299903775,
                        -0.33827416295771245,
                        3.5086485552562845,
                        0.45956776896419926
                    ],
                    [
                        6.823053483573612,
                        -6.26752945182327,
                        5.254744343428683,
                        7.348855035686282,
                        7.811601535296089,
                        9.835237395346839,
                        -6.876627284399357,
                        10.317300084663719
                    ],
                    [
                        16.97435915916798,
                        0.22014885660585634,
                        -3.634676301198413,
                        13.26543176283043,
                        -1.5422259367084992,
                        3.190208140485111,
                        5.033088914881667,
                        -5.697363823155354
                    ],
                    [
                        -11.442280617627306,
                        15.350882892592265,
                        2.07348931418525,
                        10.089261348538063,
                        -0.34593890386175125,
                        26.65048372730526,
                        -4.3790358460771985,
                        -1.429770081631983
                    ],
                    [
                        -1.4075268439377453,
                        -1.0041402953964902,
                        8.813633640507701,
                        8.149788470747438,
                        -0.5534413249273347,
                        6.1598528868346305,
                        3.951724366938513,
                        -1.0000293159042728
                    ],
                    [
                        -1.709260737245714,
                        -3.145105487939726,
                        -0.8232940431778885,
                        -0.6077376168175456,
                        -3.949376912737256,
                        1.2336202112386212,
                        -1.781546333024599,
                        -10.906061861146172
                    ]
                ],
                "Bias": [
                    [
                        1.3613788460339067,
                        3.997982218725988,
                        -3.345567265736559,
                        -11.928452140254842,
                        0.2793112149117721,
                        -3.604438905737549,
                        -0.5517166569042102,
                        9.506491961347102
                    ]
                ]
            },
            "layer@3": {
                "Name": "Layer 3",
                "NumberOfNodes": 4,
                "Weight": [
                    [
                        -10.863490853246534,
                        5.544530661959123,
                        -4.257838314782109,
                        -1.2057936206303732
                    ],
                    [
                        -3.1477617814880245,
                        2.290257780662382,
                        7.37943555493112,
                        -2.242350552767872
                    ],
                    [
                        2.834325041243079,
                        7.582947277715021,
                        2.6251596975941713,
                        0.09413691851550439
                    ],
                    [
                        6.474547824274185,
                        -7.650250601034358,
                        -0.8144052924111468,
                        0.3234928592432777
                    ],
                    [
                        -9.967460657780926,
                        3.7319917368964552,
                        3.6824594274067706,
                        -1.2380009578870061
                    ],
                    [
                        4.471313507731157,
                        -8.718851730005374,
                        -4.339903817823942,
                        4.41646751765036
                    ],
                    [
                        11.58764105216531,
                        -7.447520383911231,
                        -0.549035381956944,
                        5.701803745598414
                    ],
                    [
                        -10.77453991925121,
                        1.1412069169440597,
                        2.816615376329142,
                        -3.2281113171473126
                    ]
                ],
                "Bias": [
                    [
                        -1.70965583240605,
                        5.506471359494306,
                        5.006701089137146,
                        3.148422359821914
                    ]
                ]
            },
            "layer@4": {
                "Name": "Output layer",
                "NumberOfNodes": 1,
                "Weight": [
                    [
                        -5.065073270480531
                    ],
                    [
                        2.926400174169908
                    ],
                    [
                        6.00405985571488
                    ],
                    [
                        -3.740425225541914
                    ]
                ],
                "Bias": [
                    [
                        -3.6849730490591344
                    ]
                ]
            }
        }
    }
}